FANN_FLO_2.1
num_layers=3
learning_rate=0.700000
connection_rate=1.000000
network_type=0
learning_momentum=0.000000
training_algorithm=2
train_error_function=1
train_stop_function=0
cascade_output_change_fraction=0.010000
quickprop_decay=-0.000100
quickprop_mu=1.750000
rprop_increase_factor=1.200000
rprop_decrease_factor=0.500000
rprop_delta_min=0.000000
rprop_delta_max=50.000000
rprop_delta_zero=0.100000
cascade_output_stagnation_epochs=12
cascade_candidate_change_fraction=0.010000
cascade_candidate_stagnation_epochs=12
cascade_max_out_epochs=150
cascade_max_cand_epochs=150
cascade_num_candidate_groups=2
bit_fail_limit=3.49999994039535522461e-01
cascade_candidate_limit=1.00000000000000000000e+03
cascade_weight_multiplier=4.00000005960464477539e-01
cascade_activation_functions_count=10
cascade_activation_functions=3 5 7 8 10 11 14 15 16 17 
cascade_activation_steepnesses_count=4
cascade_activation_steepnesses=2.50000000000000000000e-01 5.00000000000000000000e-01 7.50000000000000000000e-01 1.00000000000000000000e+00 
layer_sizes=3 11 2 
scale_included=0
neurons (num_inputs, activation_function, activation_steepness)=(0, 0, 0.00000000000000000000e+00) (0, 0, 0.00000000000000000000e+00) (0, 0, 0.00000000000000000000e+00) (3, 5, 5.00000000000000000000e-01) (3, 5, 5.00000000000000000000e-01) (3, 5, 5.00000000000000000000e-01) (3, 5, 5.00000000000000000000e-01) (3, 5, 5.00000000000000000000e-01) (3, 5, 5.00000000000000000000e-01) (3, 5, 5.00000000000000000000e-01) (3, 5, 5.00000000000000000000e-01) (3, 5, 5.00000000000000000000e-01) (3, 5, 5.00000000000000000000e-01) (0, 5, 0.00000000000000000000e+00) (11, 5, 5.00000000000000000000e-01) (0, 5, 0.00000000000000000000e+00) 
connections (connected_to_neuron, weight)=(0, 5.63789272308349609375e+00) (1, 5.02687406539916992188e+00) (2, -9.38586175441741943359e-01) (0, 3.47879141569137573242e-01) (1, 8.11944961547851562500e-01) (2, -2.73372262716293334961e-01) (0, -4.00567412376403808594e-01) (1, -4.10630196332931518555e-01) (2, 2.22978606820106506348e-01) (0, 4.91062068939208984375e+00) (1, 4.85424184799194335938e+00) (2, -8.12615036964416503906e-01) (0, 7.73831963539123535156e-01) (1, 2.74069249629974365234e-01) (2, 1.94681555032730102539e-01) (0, -5.80935120582580566406e-01) (1, -4.89066988229751586914e-01) (2, 3.68939906358718872070e-01) (0, 5.02028226852416992188e+00) (1, 4.98849105834960937500e+00) (2, -9.17451739311218261719e-01) (0, 5.62736392021179199219e-01) (1, 3.41873258352279663086e-01) (2, 1.36843249201774597168e-01) (0, -5.53439080715179443359e-01) (1, -4.17873203754425048828e-01) (2, 3.12885493040084838867e-01) (0, -2.12343662977218627930e-01) (1, -4.86668020486831665039e-01) (2, 2.62242555618286132812e-03) (3, 1.63770365715026855469e+00) (4, -1.22494673728942871094e+00) (5, 6.06170940399169921875e+00) (6, 1.38954949378967285156e+00) (7, -6.57969474792480468750e-01) (8, 3.15663194656372070312e+00) (9, 1.69391846656799316406e+00) (10, -1.37541174888610839844e+00) (11, 1.48795497417449951172e+00) (12, 1.18303680419921875000e+00) (13, 4.99041706323623657227e-01) 
