FANN_FLO_2.1
num_layers=3
learning_rate=0.700000
connection_rate=1.000000
network_type=0
learning_momentum=0.000000
training_algorithm=2
train_error_function=1
train_stop_function=0
cascade_output_change_fraction=0.010000
quickprop_decay=-0.000100
quickprop_mu=1.750000
rprop_increase_factor=1.200000
rprop_decrease_factor=0.500000
rprop_delta_min=0.000000
rprop_delta_max=50.000000
rprop_delta_zero=0.100000
cascade_output_stagnation_epochs=12
cascade_candidate_change_fraction=0.010000
cascade_candidate_stagnation_epochs=12
cascade_max_out_epochs=150
cascade_min_out_epochs=50
cascade_max_cand_epochs=150
cascade_min_cand_epochs=50
cascade_num_candidate_groups=2
bit_fail_limit=3.49999994039535522461e-01
cascade_candidate_limit=1.00000000000000000000e+03
cascade_weight_multiplier=4.00000005960464477539e-01
cascade_activation_functions_count=10
cascade_activation_functions=3 5 7 8 10 11 14 15 16 17 
cascade_activation_steepnesses_count=4
cascade_activation_steepnesses=2.50000000000000000000e-01 5.00000000000000000000e-01 7.50000000000000000000e-01 1.00000000000000000000e+00 
layer_sizes=9 4 6 
scale_included=0
neurons (num_inputs, activation_function, activation_steepness)=(0, 0, 0.00000000000000000000e+00) (0, 0, 0.00000000000000000000e+00) (0, 0, 0.00000000000000000000e+00) (0, 0, 0.00000000000000000000e+00) (0, 0, 0.00000000000000000000e+00) (0, 0, 0.00000000000000000000e+00) (0, 0, 0.00000000000000000000e+00) (0, 0, 0.00000000000000000000e+00) (0, 0, 0.00000000000000000000e+00) (9, 5, 5.00000000000000000000e-01) (9, 5, 5.00000000000000000000e-01) (9, 5, 5.00000000000000000000e-01) (0, 5, 0.00000000000000000000e+00) (4, 5, 5.00000000000000000000e-01) (4, 5, 5.00000000000000000000e-01) (4, 5, 5.00000000000000000000e-01) (4, 5, 5.00000000000000000000e-01) (4, 5, 5.00000000000000000000e-01) (0, 5, 0.00000000000000000000e+00) 
connections (connected_to_neuron, weight)=(0, 5.27638271450996398926e-02) (1, -7.87663459777832031250e-02) (2, 7.67848640680313110352e-03) (3, 4.32358458638191223145e-02) (4, 9.52605679631233215332e-02) (5, 8.86573418974876403809e-02) (6, -5.98761253058910369873e-02) (7, -1.40350610017776489258e-02) (8, 9.65745076537132263184e-02) (0, 3.87548878788948059082e-02) (1, 9.03896167874336242676e-02) (2, -4.45674359798431396484e-02) (3, 4.69515994191169738770e-02) (4, 4.29913327097892761230e-02) (5, -4.61426638066768646240e-02) (6, -9.03090015053749084473e-02) (7, 9.32643786072731018066e-02) (8, 4.26087453961372375488e-02) (0, 6.81213289499282836914e-03) (1, -2.82707512378692626953e-02) (2, -1.01044252514839172363e-02) (3, 7.38395527005195617676e-02) (4, 5.47655001282691955566e-02) (5, 4.90454360842704772949e-02) (6, 3.21455672383308410645e-02) (7, -2.36885994672775268555e-02) (8, -9.98254790902137756348e-02) (9, 7.74255022406578063965e-02) (10, -7.57352858781814575195e-02) (11, 8.00749734044075012207e-02) (12, 7.97180458903312683105e-02) (9, -8.59477370977401733398e-02) (10, 6.07420280575752258301e-02) (11, -7.32173025608062744141e-02) (12, -7.70758241415023803711e-02) (9, -3.91503572463989257812e-02) (10, -4.73659522831439971924e-02) (11, -6.36432617902755737305e-02) (12, 3.72981503605842590332e-02) (9, -6.38924911618232727051e-02) (10, -7.91530311107635498047e-02) (11, 1.03324428200721740723e-02) (12, 1.70891061425209045410e-02) (9, 4.56607341766357421875e-03) (10, -6.86356648802757263184e-02) (11, 9.83907803893089294434e-02) (12, -6.90008178353309631348e-02) 
